svm_type c_svc
kernel_type rbf
gamma 0.5
nr_class 3
total_sv 3
rho 0 0 0
label 1 2 3
probA 0.693147 0.693147 0.693147
probB 2.3919e-16 2.3919e-16 2.3919e-16
nr_sv 1 1 1
SV
48.47967590090936 66.12831336935915 1:0.28702348 2:0 3:0.045319494 4:0.015106498 5:0.015106498 6:0.7553249 7:0.045319494 8:0.060425993 9:0.030212997 10:0.030212997 11:0.015106498 12:0.54383397 13:0.090638988 14:0.15106499 15:0.015106498 16:0.015106498 17:0.015106498 18:0.045319494 19:0.060425993 20:0.060425993 
-48.47967590090936 20.99080530237156 1:0.28813097 2:0.012527434 3:0.012527434 4:0 5:0.025054868 6:0.63889915 7:0.025054868 8:0.012527434 9:0.037582301 10:0.050109737 11:0.012527434 12:0.67648143 13:0.10021947 14:0.1503292 15:0.025054868 16:0.037582301 17:0 18:0 19:0.025054868 20:0.10021947 
-66.12831336935915 -20.99080530237156 1:0.19527994 2:0 3:0.035505444 4:0.017752722 5:0 6:0.79887253 7:0.053258166 8:0.053258166 9:0.017752722 10:0.017752722 11:0.017752722 12:0.47932351 13:0.071010888 14:0.26629084 15:0.017752722 16:0.035505444 17:0 18:0.017752722 19:0.071010888 20:0.053258166 
