svm_type c_svc
kernel_type rbf
gamma 0.5
nr_class 2
total_sv 3
rho 0.070993
label 0 -2147483648
probA 0.633472
probB 0.721077
nr_sv 1 2
SV
27.4590493973467 1:0.35716921 2:0.016234964 3:0.081174821 4:0.016234964 5:0 6:0.79551327 7:0.016234964 8:0.032469928 9:0.016234964 10:0.097409785 11:0.2272895 12:0 13:0.34093425 14:0.016234964 15:0.032469928 16:0.048704892 17:0.12987971 18:0.081174821 19:0.16234964 20:0 
-27.14833060516857 1:0.33706003 2:0.028088337 3:0.014044168 4:0.014044168 5:0.070220843 6:0.73029673 7:0.028088337 8:0.084265009 9:0.042132504 10:0.014044168 11:0.18257418 12:0.056176674 13:0.51963425 14:0.028088337 15:0.070220843 16:0.014044168 17:0.12639752 18:0.028088337 19:0.084265009 20:0.028088337 
-0.3107187921781239 1:0.082813784 2:0.2277379 3:0.031055169 4:0 5:0.010351723 6:0.49688271 7:0.020703446 8:0.48653096 9:0.010351723 10:0.14492412 11:0.40371719 12:0.19668274 13:0.36231029 14:0 15:0.010351723 16:0.07246206 17:0.07246206 18:0.031055169 19:0.020703446 20:0.30019996 
