svm_type c_svc
kernel_type rbf
gamma 0.5
nr_class 3
total_sv 5
rho 0.0250979 7.97973e-17 -0.142075
label 1 2 3
probA -0.919341 0.543717 3.14994
probB -0.187005 -0.719305 -2.57185
nr_sv 2 2 1
SV
15.68398691806367 27.48842576512246 1:0 2:0.12582184 3:0.41940612 4:0 5:0 6:0.020970305 7:0.10485153 8:0.020970305 9:0.37746552 10:0.29358429 11:0.062910922 12:0 13:0.41940612 14:0.16776244 15:0.29358429 16:0.14679214 17:0.041940611 18:0.27261397 19:0 20:0.41940612 
0.1360557308748143 0 1:0.03634562 2:0.27259213 3:0.25441933 4:0.03634562 5:0.21807371 6:0.32711056 7:0 8:0.054518428 9:0.14538248 10:0.16355528 11:0.12720966 12:0.03634562 13:0.23624651 14:0.12720966 15:0.29076496 16:0 17:0.25441933 18:0.41797462 19:0.12720966 20:0.47249302 
-1.539744843075038 6.130018233011206 1:0 2:0.0822106 3:0.52614784 4:0 5:0 6:0 7:0 8:0.0822106 9:0.19730546 10:0.42749515 11:0.06576848 12:0.01644212 13:0.52614784 14:0.098652728 15:0.34528455 16:0.01644212 17:0.098652728 18:0.21374758 19:0 20:0.14797908 
-14.28029780586344 10.68152368052244 1:0 2:0.04930637 3:0.41088644 4:0.032870915 5:0 6:0 7:0.032870915 8:0.032870915 9:0.26296732 10:0.32870916 11:0.082177289 12:0 13:0.65741831 14:0.13148366 15:0.24653186 16:0.06574183 17:0.1150482 18:0.2300964 19:0 20:0.24653186 
-27.48842576512246 -16.81154191353365 1:0 2:0.07189884 3:0.52725816 4:0 5:0 6:0 7:0.095865116 8:0.023966279 9:0.21569651 10:0.38346046 11:0.1198314 12:0 13:0.43139303 14:0.1198314 15:0.21569651 16:0.1198314 17:0.047932558 18:0.16776395 19:0 20:0.45535931 
